<?xml version="1.0"?>
<opencv_storage>
<stage0>
  <maxWeakCount>7</maxWeakCount>
  <stageThreshold>-7.3229825496673584e-01</stageThreshold>
  <weakClassifiers>
    <_>
      <internalNodes>
        0 -1 1405927 -8.3039790391921997e-02</internalNodes>
      <leafValues>
        9.8283261060714722e-01 -3.1853497028350830e-01</leafValues></_>
    <_>
      <internalNodes>
        0 -1 6226 -8.6229845881462097e-02</internalNodes>
      <leafValues>
        9.5070147514343262e-01 -1.7575183510780334e-01</leafValues></_>
    <_>
      <internalNodes>
        0 -1 5000679 -2.6700608432292938e-02</internalNodes>
      <leafValues>
        8.6539578437805176e-01 -3.0184701085090637e-01</leafValues></_>
    <_>
      <internalNodes>
        0 -1 7554481 3.4330941736698151e-02</internalNodes>
      <leafValues>
        -3.0000904202461243e-01 9.0612566471099854e-01</leafValues></_>
    <_>
      <internalNodes>
        0 -1 1247823 4.4583998620510101e-02</internalNodes>
      <leafValues>
        -2.6024237275123596e-01 9.3208199739456177e-01</leafValues></_>
    <_>
      <internalNodes>
        0 -1 31383 -8.2768753170967102e-02</internalNodes>
      <leafValues>
        9.3860906362533569e-01 -2.7403831481933594e-01</leafValues></_>
    <_>
      <internalNodes>
        0 -1 639156 5.8984667062759399e-02</internalNodes>
      <leafValues>
        -2.6911747455596924e-01 9.7331172227859497e-01</leafValues></_></weakClassifiers></stage0>
</opencv_storage>
