<?xml version="1.0"?>
<opencv_storage>
<stage11>
  <maxWeakCount>8</maxWeakCount>
  <stageThreshold>-7.3448663949966431e-01</stageThreshold>
  <weakClassifiers>
    <_>
      <internalNodes>
        0 -1 8827 -1.9216415286064148e-01</internalNodes>
      <leafValues>
        9.4936710596084595e-01 -1.1938872933387756e-01</leafValues></_>
    <_>
      <internalNodes>
        0 -1 538641 6.4014177769422531e-04</internalNodes>
      <leafValues>
        4.0950939059257507e-01 -7.4987465143203735e-01</leafValues></_>
    <_>
      <internalNodes>
        0 -1 117942 -1.3726007938385010e-01</internalNodes>
      <leafValues>
        9.4056612253189087e-01 -3.0375260114669800e-01</leafValues></_>
    <_>
      <internalNodes>
        0 -1 7125815 2.2105409698269796e-06</internalNodes>
      <leafValues>
        -3.2860124111175537e-01 6.9126737117767334e-01</leafValues></_>
    <_>
      <internalNodes>
        0 -1 5278783 -1.9719210267066956e-01</internalNodes>
      <leafValues>
        9.6596050262451172e-01 -2.2699670493602753e-01</leafValues></_>
    <_>
      <internalNodes>
        0 -1 20294 -4.5936074107885361e-02</internalNodes>
      <leafValues>
        8.6111396551132202e-01 -2.2213277220726013e-01</leafValues></_>
    <_>
      <internalNodes>
        0 -1 1743721 1.0300711542367935e-01</internalNodes>
      <leafValues>
        -2.4403573572635651e-01 9.5218145847320557e-01</leafValues></_>
    <_>
      <internalNodes>
        0 -1 7951250 -3.1351397046819329e-04</internalNodes>
      <leafValues>
        -7.1895682811737061e-01 4.3209132552146912e-01</leafValues></_></weakClassifiers></stage11>
</opencv_storage>
