<?xml version="1.0"?>
<opencv_storage>
<stage13>
  <maxWeakCount>7</maxWeakCount>
  <stageThreshold>-8.9701998233795166e-01</stageThreshold>
  <weakClassifiers>
    <_>
      <internalNodes>
        0 -1 7421564 -3.0584997148253024e-04</internalNodes>
      <leafValues>
        -7.5535166263580322e-01 5.0824820995330811e-01</leafValues></_>
    <_>
      <internalNodes>
        0 -1 200028 -3.4540599584579468e-01</internalNodes>
      <leafValues>
        8.9752739667892456e-01 -3.5317212343215942e-01</leafValues></_>
    <_>
      <internalNodes>
        0 -1 6238468 -2.1942498733551474e-06</internalNodes>
      <leafValues>
        7.8294503688812256e-01 -2.7423599362373352e-01</leafValues></_>
    <_>
      <internalNodes>
        0 -1 6486610 2.1057605863461504e-06</internalNodes>
      <leafValues>
        -3.5202726721763611e-01 7.0015794038772583e-01</leafValues></_>
    <_>
      <internalNodes>
        0 -1 1739268 -3.1786388717591763e-04</internalNodes>
      <leafValues>
        -6.6469305753707886e-01 3.8656258583068848e-01</leafValues></_>
    <_>
      <internalNodes>
        0 -1 170131 -5.0345465540885925e-02</internalNodes>
      <leafValues>
        9.4173979759216309e-01 -2.6297438144683838e-01</leafValues></_>
    <_>
      <internalNodes>
        0 -1 2826771 -2.6176292067248141e-06</internalNodes>
      <leafValues>
        7.1417886018753052e-01 -3.2391452789306641e-01</leafValues></_></weakClassifiers></stage13>
</opencv_storage>
