<?xml version="1.0"?>
<opencv_storage>
<stage6>
  <maxWeakCount>9</maxWeakCount>
  <stageThreshold>-1.0455285310745239e+00</stageThreshold>
  <weakClassifiers>
    <_>
      <internalNodes>
        0 -1 362304 -1.6158367693424225e-01</internalNodes>
      <leafValues>
        9.5570701360702515e-01 -1.5893386304378510e-01</leafValues></_>
    <_>
      <internalNodes>
        0 -1 8262904 3.0699314083904028e-04</internalNodes>
      <leafValues>
        4.7628423571586609e-01 -6.6370701789855957e-01</leafValues></_>
    <_>
      <internalNodes>
        0 -1 160858 -4.0002800524234772e-02</internalNodes>
      <leafValues>
        8.4866070747375488e-01 -3.3686685562133789e-01</leafValues></_>
    <_>
      <internalNodes>
        0 -1 2206133 7.2671845555305481e-02</internalNodes>
      <leafValues>
        -3.0265706777572632e-01 9.5507740974426270e-01</leafValues></_>
    <_>
      <internalNodes>
        0 -1 3683909 -2.8527717222459614e-04</internalNodes>
      <leafValues>
        -7.9022562503814697e-01 3.9967644214630127e-01</leafValues></_>
    <_>
      <internalNodes>
        0 -1 3683677 3.1457463046535850e-04</internalNodes>
      <leafValues>
        3.3873772621154785e-01 -8.0326646566390991e-01</leafValues></_>
    <_>
      <internalNodes>
        0 -1 5584939 -5.6233152747154236e-02</internalNodes>
      <leafValues>
        9.3095690011978149e-01 -3.7941133975982666e-01</leafValues></_>
    <_>
      <internalNodes>
        0 -1 5161 -3.2609304785728455e-01</internalNodes>
      <leafValues>
        8.6625307798385620e-01 -2.5730949640274048e-01</leafValues></_>
    <_>
      <internalNodes>
        0 -1 6813264 1.7688149819150567e-03</internalNodes>
      <leafValues>
        3.6485370993614197e-01 -9.3112635612487793e-01</leafValues></_></weakClassifiers></stage6>
</opencv_storage>
