<?xml version="1.0"?>
<opencv_storage>
<stage9>
  <maxWeakCount>9</maxWeakCount>
  <stageThreshold>-1.5474424362182617e+00</stageThreshold>
  <weakClassifiers>
    <_>
      <internalNodes>
        0 -1 537611 -1.8296582996845245e-01</internalNodes>
      <leafValues>
        9.6756756305694580e-01 -1.3110047578811646e-01</leafValues></_>
    <_>
      <internalNodes>
        0 -1 6139040 1.3370341621339321e-03</internalNodes>
      <leafValues>
        4.4369509816169739e-01 -7.0341414213180542e-01</leafValues></_>
    <_>
      <internalNodes>
        0 -1 3375206 -3.0145642813295126e-04</internalNodes>
      <leafValues>
        -7.4524569511413574e-01 3.5280567407608032e-01</leafValues></_>
    <_>
      <internalNodes>
        0 -1 122856 -1.2718169391155243e-01</internalNodes>
      <leafValues>
        9.6282422542572021e-01 -3.3076870441436768e-01</leafValues></_>
    <_>
      <internalNodes>
        0 -1 6227495 2.1354772616177797e-03</internalNodes>
      <leafValues>
        4.2334926128387451e-01 -7.2970718145370483e-01</leafValues></_>
    <_>
      <internalNodes>
        0 -1 1248261 1.3007707893848419e-01</internalNodes>
      <leafValues>
        -3.1297838687896729e-01 9.6064662933349609e-01</leafValues></_>
    <_>
      <internalNodes>
        0 -1 7340526 6.3221380114555359e-02</internalNodes>
      <leafValues>
        -2.4581578373908997e-01 9.6305203437805176e-01</leafValues></_>
    <_>
      <internalNodes>
        0 -1 5076740 -2.1942498733551474e-06</internalNodes>
      <leafValues>
        7.5793153047561646e-01 -3.0334791541099548e-01</leafValues></_>
    <_>
      <internalNodes>
        0 -1 5441850 -2.2105409698269796e-06</internalNodes>
      <leafValues>
        7.0785498619079590e-01 -3.4522983431816101e-01</leafValues></_></weakClassifiers></stage9>
</opencv_storage>
