<?xml version="1.0"?>
<opencv_storage>
<stage7>
  <maxWeakCount>9</maxWeakCount>
  <stageThreshold>-1.2978303432464600e+00</stageThreshold>
  <weakClassifiers>
    <_>
      <internalNodes>
        0 -1 6809643 -1.8045778851956129e-03</internalNodes>
      <leafValues>
        -6.9270831346511841e-01 5.4769736528396606e-01</leafValues></_>
    <_>
      <internalNodes>
        0 -1 8784 -1.7038646340370178e-01</internalNodes>
      <leafValues>
        9.0501666069030762e-01 -3.4163132309913635e-01</leafValues></_>
    <_>
      <internalNodes>
        0 -1 6523 -1.2343510985374451e-01</internalNodes>
      <leafValues>
        9.5986300706863403e-01 -2.0833976566791534e-01</leafValues></_>
    <_>
      <internalNodes>
        0 -1 1256250 5.8084256947040558e-02</internalNodes>
      <leafValues>
        -2.3406176269054413e-01 9.0493428707122803e-01</leafValues></_>
    <_>
      <internalNodes>
        0 -1 6368678 -2.1963164726912510e-06</internalNodes>
      <leafValues>
        7.2035831212997437e-01 -3.0121394991874695e-01</leafValues></_>
    <_>
      <internalNodes>
        0 -1 9237924 -9.7616168204694986e-04</internalNodes>
      <leafValues>
        -8.9409607648849487e-01 3.1158053874969482e-01</leafValues></_>
    <_>
      <internalNodes>
        0 -1 8338909 3.1240412499755621e-04</internalNodes>
      <leafValues>
        2.8063735365867615e-01 -8.1571781635284424e-01</leafValues></_>
    <_>
      <internalNodes>
        0 -1 7154449 3.7435386329889297e-02</internalNodes>
      <leafValues>
        -3.4352776408195496e-01 8.7496280670166016e-01</leafValues></_>
    <_>
      <internalNodes>
        0 -1 8595011 2.2744357120245695e-03</internalNodes>
      <leafValues>
        3.7496161460876465e-01 -7.9013764858245850e-01</leafValues></_></weakClassifiers></stage7>
</opencv_storage>
